//Numpy array shape [256]
//Min -0.117779478431
//Max 1.086647748947
//Number of zeros 0

#ifndef __SYNTHESIS__
model_default_t b2[256];
#else
model_default_t b2[256] = {-0.0241, 1.0538, -0.0755, 0.9583, 0.9549, 0.9962, 0.0170, 0.1950, 0.0440, -0.0951, 0.9591, 0.9612, -0.0083, -0.0107, 0.0432, 0.9238, 0.0271, -0.0536, -0.0617, 0.0011, -0.0648, 0.1904, 1.0021, 0.0603, -0.0163, 0.1875, 0.0075, 0.0268, -0.0155, 0.1403, 0.0699, 0.0876, 0.9662, 0.0390, 0.7703, 0.2657, 0.9929, 0.0575, 0.2895, -0.0743, 0.9552, 0.2858, 0.0797, 0.0109, 0.8775, 0.0495, -0.1004, 0.4326, 1.0419, 0.1263, 0.0061, 0.0800, -0.0091, 0.2052, 1.0535, -0.0129, -0.0290, -0.0533, 0.9868, -0.0715, 0.9135, -0.0094, 0.0469, -0.0771, 0.0130, -0.0661, 0.4393, 0.8498, 0.0015, 0.7493, -0.0987, 0.0197, -0.0835, 0.1253, 0.0222, -0.0810, 0.8107, 0.8078, -0.0232, 0.9075, 0.9238, 0.2898, 0.1780, 0.0474, -0.1008, 0.9351, 0.9115, 0.3627, 0.9920, 0.3863, 1.0612, 0.0658, 1.0213, 1.0116, 1.0492, 0.9788, 0.6994, 0.3938, -0.0465, 0.9841, 1.0423, 0.2995, 0.0613, 0.2893, -0.0980, 0.0766, 0.8200, -0.0521, -0.0072, -0.0212, 0.9914, 1.0031, -0.0892, 0.9860, 0.0299, 0.9633, 0.0772, 0.0341, 0.1304, 0.0476, -0.0090, 0.3889, 0.5797, 1.0002, 0.8738, 0.1066, 0.2851, 0.0598, 0.0691, 0.1404, -0.0409, 0.9855, 0.9622, 0.1978, -0.0137, 0.6179, 0.9878, -0.0104, 0.1123, 0.5340, -0.0326, 0.5823, 0.0395, -0.0138, 0.9928, 0.4267, -0.0780, 0.1204, 0.0384, 0.0953, -0.0919, 0.0602, 0.1586, 0.4026, 1.0760, 0.0238, 0.2374, 0.1243, 0.4165, 0.0063, 0.1622, -0.1038, 0.0349, 1.0221, 0.1483, 0.0218, 1.0524, -0.0740, 1.0216, 0.1182, 1.0368, 0.9906, 0.0573, 0.3318, 0.1258, -0.0466, -0.0513, 0.1240, 0.9607, -0.0236, 1.0028, 0.9993, 0.0165, -0.0669, 0.1986, 1.0028, 1.0077, -0.1163, 0.3485, -0.0462, 0.4662, 1.0151, -0.0002, 0.1259, 0.0382, -0.0720, 1.0220, 0.2231, 1.0136, 0.0699, 0.9742, 0.9535, 0.9832, 0.0467, 0.4408, -0.0362, 1.0233, 0.9588, 1.0866, -0.0458, -0.0401, 0.2186, -0.0108, 0.6829, 0.9755, 0.9932, 0.1505, 0.0123, 0.1016, -0.1178, 0.0332, 0.9938, 0.5120, 0.1091, 1.0432, 0.4541, 0.2479, 0.9785, 0.1098, 0.3336, 0.1307, 0.0242, 1.0155, 1.0634, 1.0563, -0.0413, 0.0030, 0.0038, -0.0725, -0.0069, 0.0127, 0.0007, 0.1223, -0.0302, 0.7604, 0.3330, 0.0407, 0.9551, -0.0127, 0.8748, 0.0095, 0.9592, -0.0234, -0.0887, 0.0931, 0.9410};
#endif
