//Numpy array shape [128]
//Min -0.043996777385
//Max 0.280277758837
//Number of zeros 0

#ifndef __SYNTHESIS__
model_default_t b4[128];
#else
model_default_t b4[128] = {0.0662, 0.0735, 0.0618, -0.0016, 0.0295, 0.2021, -0.0012, 0.0366, 0.0145, 0.0080, 0.2347, -0.0012, 0.2166, 0.0278, 0.2133, -0.0440, 0.1366, -0.0002, 0.2276, -0.0063, 0.0271, 0.0179, -0.0051, 0.2476, 0.2803, 0.1231, 0.0206, -0.0029, 0.1546, 0.0066, 0.2737, 0.0336, 0.2527, 0.1112, 0.0052, -0.0025, 0.0481, 0.0034, 0.0160, 0.0000, 0.1874, 0.1943, -0.0070, 0.0120, -0.0000, 0.0337, 0.0420, 0.0878, -0.0276, -0.0020, 0.2486, 0.0085, 0.1619, 0.0381, 0.0302, 0.1709, 0.0248, 0.2241, 0.0940, 0.0127, 0.0109, 0.0277, -0.0097, 0.0191, 0.0180, 0.2315, 0.0184, 0.0145, 0.0368, 0.0146, 0.0123, -0.0113, -0.0083, 0.1723, 0.0510, 0.0101, -0.0292, 0.0190, -0.0046, 0.2683, 0.1594, 0.0498, 0.0072, -0.0085, 0.1307, 0.2183, 0.0173, 0.0221, 0.2304, 0.0970, 0.0018, -0.0103, 0.1589, 0.0077, 0.0482, 0.0544, 0.2007, 0.2463, 0.2026, 0.0335, 0.0048, -0.0049, 0.2627, 0.0023, 0.0301, 0.0281, 0.0971, 0.0545, 0.2175, 0.0387, 0.1787, 0.1772, -0.0070, -0.0063, -0.0433, 0.1926, 0.0259, 0.0074, 0.1183, 0.0037, -0.0082, 0.2002, 0.0207, 0.0123, 0.0741, -0.0035, 0.0085, 0.1332};
#endif
