//Numpy array shape [256]
//Min -0.125005319715
//Max 0.308375388384
//Number of zeros 0

#ifndef __SYNTHESIS__
model_default_t b6[256];
#else
model_default_t b6[256] = {0.0106, -0.0513, -0.0207, -0.0171, -0.0009, -0.0016, 0.1497, -0.0051, 0.0019, -0.0054, -0.0217, 0.0002, -0.0528, 0.0771, -0.0402, 0.0529, -0.0090, -0.0020, -0.0532, 0.0095, 0.0443, 0.0451, 0.0270, -0.0077, 0.0459, 0.0013, 0.1671, 0.0148, -0.0056, -0.0987, 0.0231, 0.0089, 0.0337, 0.0143, 0.0704, 0.1783, 0.0251, -0.0097, -0.0679, -0.0005, -0.0167, 0.0446, 0.0693, -0.0713, 0.0506, 0.0377, 0.0295, 0.0001, -0.0149, -0.0127, -0.0457, -0.0338, 0.0369, -0.0482, 0.0317, 0.0119, 0.0059, -0.0500, -0.0031, 0.0375, -0.0654, 0.1517, -0.0305, 0.0312, 0.0385, -0.0263, 0.0681, 0.0038, -0.0387, -0.0124, -0.0057, 0.0341, 0.0027, 0.0121, 0.0569, 0.0174, 0.0007, 0.0415, -0.0167, -0.0063, -0.0094, 0.0307, 0.0227, 0.0053, 0.0069, 0.0202, 0.0370, -0.0066, 0.3003, -0.0035, -0.0460, 0.1820, 0.0439, -0.0064, -0.0253, 0.0852, 0.0033, -0.0217, 0.1036, -0.0061, -0.0288, 0.0179, 0.0150, -0.0207, 0.0037, 0.1084, -0.0289, -0.0411, 0.0203, 0.0864, 0.0010, -0.0031, 0.0159, 0.1458, -0.0085, -0.0288, -0.0051, -0.0328, -0.0204, -0.0066, -0.0048, 0.0579, -0.0261, -0.0010, 0.0085, -0.0330, -0.0053, 0.0125, 0.0323, 0.0034, 0.0532, -0.0221, 0.0695, 0.0006, 0.0224, 0.0304, 0.0104, -0.0021, -0.0015, 0.0263, 0.0775, 0.1601, -0.0020, 0.0611, 0.0151, 0.0688, -0.1250, 0.0630, -0.0145, -0.0002, -0.0308, 0.0037, -0.0156, -0.0297, -0.0313, -0.0169, -0.0515, 0.0294, -0.0339, -0.0802, -0.0120, 0.0680, 0.0001, -0.0102, 0.0084, 0.0312, -0.0732, -0.0048, 0.0526, 0.0515, -0.0073, 0.0193, -0.0030, 0.0193, -0.0228, 0.0379, -0.0491, 0.0216, 0.0552, 0.0092, 0.0138, 0.0106, 0.0238, -0.0063, -0.0152, -0.0040, 0.0848, -0.0309, 0.0065, 0.0756, 0.0510, 0.0915, 0.0295, 0.0421, -0.0182, -0.0010, -0.0709, 0.0408, 0.0439, 0.1051, -0.0068, -0.0402, 0.0400, 0.1184, -0.0370, -0.0178, -0.0052, 0.0556, -0.0326, -0.0396, 0.0219, -0.0047, -0.0277, -0.0146, 0.0623, -0.0562, -0.0039, -0.0064, 0.0187, 0.0011, -0.0491, 0.0318, 0.0975, 0.0260, 0.3084, 0.0370, 0.0399, 0.0624, 0.0035, 0.0107, -0.0036, 0.0335, -0.0321, 0.0160, 0.0417, -0.0081, -0.0149, -0.0098, 0.0296, -0.0420, 0.0070, -0.0450, -0.0206, 0.0354, 0.0076, -0.0215, -0.0073, 0.0977, 0.0524, -0.0055, 0.0471, -0.0045, -0.0028, -0.0166, 0.0097, 0.0087};
#endif
