//Numpy array shape [128]
//Min -0.990090012550
//Max 0.598233878613
//Number of zeros 0

#ifndef __SYNTHESIS__
model_default_t b4[128];
#else
model_default_t b4[128] = {0.1835, 0.0900, 0.1675, 0.0721, 0.1543, -0.0010, 0.1811, 0.3032, -0.0428, 0.0816, 0.3311, 0.0928, 0.2356, 0.0512, 0.4353, -0.0974, 0.1215, 0.3357, 0.1453, 0.1467, 0.3104, 0.3021, 0.0241, 0.2236, 0.2359, 0.0626, -0.1166, 0.2085, 0.0859, -0.1917, -0.2192, -0.0807, 0.3520, 0.1102, 0.1577, -0.0031, 0.0367, 0.3318, 0.3195, 0.0996, 0.2043, 0.1678, 0.0537, -0.0193, 0.0469, 0.0189, 0.0081, 0.0277, -0.0930, 0.1528, 0.3499, 0.0655, 0.1928, 0.2961, 0.0765, -0.0940, 0.0515, 0.1851, -0.3293, -0.0373, 0.2031, 0.2623, 0.0991, 0.0883, 0.5982, -0.0921, 0.2808, -0.2557, 0.3044, 0.3080, 0.1085, 0.4682, 0.2699, 0.0257, 0.0052, 0.2644, -0.1926, 0.2827, 0.0098, 0.2327, -0.0681, -0.0559, -0.9901, 0.2795, 0.2933, 0.2062, 0.2888, 0.4534, 0.0959, 0.2308, 0.0442, 0.0657, -0.2774, 0.3672, -0.2999, -0.3889, 0.1265, 0.3341, -0.1443, 0.4015, -0.4945, 0.3791, 0.0609, 0.0095, 0.1503, -0.1912, 0.2082, 0.1200, 0.0785, 0.3305, 0.3724, -0.0320, 0.0336, 0.0847, 0.2987, 0.0557, 0.1959, 0.4255, 0.1890, 0.0792, -0.0648, -0.0438, 0.4137, -0.0302, 0.1470, 0.1426, -0.0239, 0.1661};
#endif
